#include <iostream>
#include <stdlib.h>
#include <matrix/matrix/math.hpp>
using namespace std;
using namespace matrix;

const float AgentActordensekernel[32][18] = 
{{0.03784241,-0.02146099,-0.18812317,-0.2941486,-0.046639886,-0.26476607,0.14921813,0.030586371,0.18973403,-0.05902505,0.0009081193,-0.19819963,-0.0683871,-0.31848422,0.2181418,-0.1552748,-0.15451239,0.18815373},
{0.08898622,0.07953176,-0.10839578,-0.24203438,0.10938693,0.2396987,0.12048213,-0.22984226,0.018896168,-0.0880447,0.07799132,-0.50430715,-0.2659573,0.058035146,0.2989693,-0.21366522,0.19123879,0.14534943},
{-0.17325091,0.24573854,-0.052975923,-0.045145113,-0.185055,0.26955336,0.20962249,-0.32094228,-0.096526675,-0.005123252,0.094822995,-0.097006224,-0.25932515,0.05440024,0.22615245,-0.06778162,-0.015527291,0.1736282},
{-0.08799597,0.04621922,-0.20321088,-0.16657588,-0.14418752,-0.03914362,0.32955486,0.0830563,-0.21288294,-0.011203793,-0.15341696,-0.40805683,0.08205419,-0.21476516,0.22624221,0.09228613,-0.1242921,0.3385083},
{0.23852341,-0.11875351,0.034794714,0.0050733336,0.10858828,0.15852812,-0.15303335,-0.0323342,0.032535467,-0.17314586,0.12035242,-0.09919925,-0.12371359,-0.44835532,-0.11184249,-0.011795283,-0.17840488,-0.102439046},
{-0.029774435,0.12958717,-0.18127553,-0.08461194,-0.22201137,-0.21689951,0.11986004,0.017869163,-0.09064308,0.065268695,0.12149383,0.097308196,-0.02759859,-0.3121778,0.1261966,0.0029363455,-0.22922577,0.09602096},
{0.16179605,0.093441814,0.2002195,-0.20758574,0.280217,-0.1527718,0.053482205,-0.07034407,0.17737877,-0.06207801,0.09405294,-0.4053959,0.078947425,-0.2930309,0.15827253,0.09855228,-0.23383531,0.14165108},
{0.036108315,-0.3429155,0.1689018,0.056204878,0.08086369,0.25508425,0.06809627,0.016757194,0.14467032,0.16016585,0.046495598,-0.08133886,-0.4068095,0.017195435,-0.048741315,-0.3118536,-0.075440824,-0.12073111},
{0.065671064,0.07544928,0.11448331,0.32472467,0.05236572,-0.21941274,0.037625477,0.1343567,-0.12936835,0.04414254,-0.20217022,0.12813927,-0.21183376,0.084445946,0.34230322,-0.10276379,-0.013294031,0.20484322},
{-0.04471078,-0.1410986,-0.08289681,0.15865369,0.09491042,0.24456288,-0.011552534,-0.14562921,-0.044338234,-0.16567783,-0.04343966,0.6089296,0.06136053,-0.055440485,0.3650131,0.1890361,-0.028166015,0.2579206},
{-0.031617086,-0.05326128,0.122751996,-0.013726802,-0.09090557,0.12873475,0.0026848323,0.19930986,0.28492072,-0.054492727,-0.03989837,0.20859209,-0.113441795,-0.054542776,-0.65416247,-0.11439916,0.05044788,-0.39766383},
{-0.028556895,0.06436401,0.1867349,0.13980113,-0.19049735,0.029414915,-0.0045859437,-0.12100978,0.18019858,-0.014520376,-0.03609931,0.18429631,0.3545691,0.20700961,-0.2582805,0.22613114,0.18293664,-0.09083078},
{-0.1193052,-0.07632043,0.26555362,0.118283674,0.12287968,0.009008094,-0.23224235,0.08678772,0.0046359273,-0.019631354,0.2206868,0.006497076,-0.32399297,-0.1353288,0.20088977,-0.102944426,-0.21368839,0.18375723},
{0.12696168,-0.011794659,-0.034952376,-0.15954939,0.050432846,-0.36806306,0.12258985,0.14919478,0.10540621,-0.019373102,0.08403201,0.0831701,0.34890643,-0.082652494,0.17138712,0.09508481,-0.2462913,0.007705073},
{0.07528611,-0.08114001,-0.15360993,0.20952304,0.11564831,-0.19246668,0.23503591,-0.035418313,0.13430265,-0.023228925,-0.08389173,0.25685728,0.2548188,0.27549967,-0.16786306,0.11484544,0.34462056,0.03286124},
{0.06331638,-0.17869712,0.07084312,0.16795711,0.052037418,0.112371914,-0.22965184,-0.03933858,0.24532515,-0.23299201,-0.19276796,-0.0016122358,0.42682263,-0.015587273,0.2271005,0.17466506,-0.026106969,0.034109797},
{0.1777503,0.08635323,0.02141415,-0.408665,0.06335415,0.11704665,-0.13827382,0.0643639,0.13747826,0.088950634,-0.30929098,-0.030727707,0.23153037,-0.26494315,-0.005286553,0.104021885,-0.25677958,-0.13750418},
{-0.14673668,-0.033274617,-0.26624376,0.06880356,-0.1443242,0.11050028,0.21946101,-0.17923099,0.0005066639,0.009428892,-0.12776789,0.19583865,-0.116621956,0.24941511,0.21683975,-0.21067783,0.15368044,0.1424853},
{0.11767498,0.1904659,0.16049553,0.12118984,0.06069143,-0.14857137,-0.0035248674,-0.3068023,-0.002710693,-0.080793425,-0.0264187,0.2773508,-0.32626507,0.38423243,-0.10432198,-0.18738021,0.27232388,-0.022519948},
{-0.52802926,0.065075636,-0.021936884,-0.011694054,-0.26327708,0.06669437,-0.03897324,0.029929245,-0.32423985,0.02432375,-0.25662753,-0.20389348,0.39242107,-0.11198291,0.13872682,0.23677461,-0.08129959,0.12195451},
{-0.1092274,-0.24828184,-0.18230134,0.06133214,-0.24201766,0.20432231,0.035614245,-0.20326696,-0.17716704,0.16791107,0.017355697,-0.042471517,0.22324648,0.27334192,0.16103943,0.19387206,0.09183402,0.193904},
{0.21897298,0.018583417,-0.1305637,0.20325886,-0.014293101,-0.12501524,0.06988725,0.021706752,-0.031508844,0.18629952,-0.14008471,0.08015583,0.21227355,0.37593868,0.37665656,0.033876996,0.1940746,0.11431553},
{-0.04260175,0.07750826,0.040004607,-0.17442651,-0.0711985,0.029793197,0.029197728,-0.10338573,-0.25340143,-0.10691137,-0.2544991,-0.14648792,0.11144441,-0.09300483,0.49429393,-0.08353311,-0.018470332,0.3330398},
{-0.17579456,0.23299173,0.011929575,-0.046216298,0.12103361,-0.10798826,-0.237432,-0.08697796,0.15681046,0.17241086,0.0756831,-0.28738955,0.040103633,0.3679762,0.26836333,0.12678552,0.16227527,0.3220803},
{-0.08426525,-0.1519651,0.0058707437,0.009297386,-0.13741682,0.19904646,0.008419279,-0.20611304,0.03826987,0.0060297893,-0.05594083,-0.034093052,0.27882272,0.24094944,0.33465028,0.18013507,0.19608219,0.08655376},
{0.0015802518,-0.22646426,-0.20797531,-0.0461919,0.17720117,-0.2258544,0.119656146,0.0044981777,0.04475451,-0.0568168,0.19707367,-0.12241071,0.27935156,0.3068251,-0.48988882,0.1667917,0.14815275,-0.14258029},
{0.033096083,0.0737377,-0.008223948,0.07772531,0.2335197,0.18455964,0.1720261,-0.0016672508,-0.083151914,0.23819947,-0.03466997,0.22807176,0.2017401,0.27862734,0.13480046,0.07537766,0.29743895,0.06850659},
{0.0777696,0.24720293,0.13761522,-0.14829944,-0.0048364163,-0.281368,-0.042703576,0.07815631,-0.072493725,-0.006403745,0.17868951,-0.2346407,-0.15674478,0.39487547,-0.02483267,-0.022720523,0.17430487,-0.009759238},
{0.058613416,0.020891149,0.18860218,0.19757007,0.09560413,-0.043636344,-0.078545496,0.11318989,0.071059845,0.11986735,0.1396128,0.46428227,-0.15067512,0.20583062,0.35110956,-0.19502728,0.06152842,0.09145748},
{0.094718814,0.122782744,0.04130108,0.09415839,0.12606812,0.07894567,-0.19872506,-0.14405854,0.18076923,0.16297752,-0.089763455,-0.3927205,0.14483275,0.25481215,-0.17999484,0.13473734,0.0152138965,-0.23650007},
{0.12109268,0.15704158,-0.032980584,0.020515094,0.112484194,0.19695562,0.10007527,-0.3388888,0.19928272,0.0037790956,0.10017538,0.17326595,-0.12257871,-0.48690143,0.039963175,-0.15623912,-0.2961689,-0.0033319758},
{-0.11624064,0.05370406,0.04738076,-0.2974505,0.041207906,0.10118668,-0.18780501,-0.17320216,-0.10823676,-0.15913816,-0.043904886,-0.21550728,-0.1326055,-0.09437317,0.11364894,-0.047064878,0.2307763,0.20488006}};

const Matrix<float, 32, 18> matrix_AgentActordensekernel(AgentActordensekernel);


const float AgentActordensebias[32] = 
{0.022393651,0.04057578,0.024420489,0.08991123,0.2388102,0.09969709,0.122807145,0.114690356,0.2580228,0.16919698,0.13932672,0.039799456,0.11887508,0.08659096,0.13310884,-0.043845676,0.13537857,0.03851886,0.12511952,-0.053752802,0.021335533,0.1024682,0.02293847,0.028718157,0.1144981,0.12562108,0.018151585,0.1879097,0.18588616,0.09471413,0.05416552,0.013778425};

const Matrix<float, 32, 1> matrix_AgentActordensebias(AgentActordensebias);


const float AgentActordense_1kernel[32][32] = 
{{0.18329178,0.1189717,0.040510688,0.20457855,0.08711635,-0.03318017,0.10628937,0.27344653,0.076580964,-0.20777437,0.03692199,-0.18215612,-0.045669395,-0.08668893,0.15961693,-0.23902985,-0.08919154,-0.27350703,0.33671993,0.33527538,-0.12085837,0.015083163,0.21124412,-0.0881091,-0.011327497,-0.11793174,-0.005846452,0.23023282,-0.15282202,0.29136345,-0.10528301,0.06335754},
{0.22365461,0.31175002,-0.1370476,0.18846229,-0.04871179,0.10322727,0.011360934,-0.14040095,0.22899519,-0.12513562,-0.119997665,0.14774975,0.17635165,0.07638496,-0.040761508,0.1241685,-0.03718471,-0.01324032,0.028123999,0.06754034,-0.2756738,0.32622045,-0.20784685,0.23686603,0.08161271,-0.18081191,0.113431126,0.087012246,-0.016723698,-0.19783969,-0.08887775,-0.04350985},
{0.056686692,-0.103431985,-0.052863125,-0.43158653,0.23084818,0.10623843,0.0706472,-0.03737771,0.08450977,0.2786767,-0.08562109,-0.14575842,0.16291158,0.15144123,-0.18356943,-0.11219859,-0.15082715,0.052220672,0.11603744,0.04288691,0.11742949,0.05349105,-0.2882496,-0.126385,0.2345256,-0.03273732,0.026676917,-0.052204575,0.19892804,-0.3375517,0.13759662,0.15217958},
{0.05701897,-0.019547481,-0.010239578,0.14688762,-0.13108955,-0.009386294,0.15195446,-0.079889104,-0.12688941,0.14484364,-0.13793804,0.45628074,-0.054040506,0.03490184,-0.04691909,0.25923535,0.16362692,0.33691105,-0.16189261,-0.16138472,-0.1743146,0.3427632,-0.244604,0.07558431,0.26625577,-0.12285071,0.13766468,-0.006502487,0.0363973,0.10449883,-0.035250816,0.09594048},
{-0.07405812,-0.19496825,0.0059695407,0.025023142,-0.06755749,0.185462,-0.25846624,0.36324573,0.22488873,0.33440697,0.13279454,0.36650628,0.071100146,-0.014465111,0.0848743,0.02091074,-0.30034035,-0.07210842,0.40276587,0.13611242,-0.15996252,0.10110339,-0.14014874,-0.04373989,-0.08275594,-0.0426232,0.049104694,0.016007649,0.30159897,0.043211944,0.06350057,-0.21903056},
{0.10106477,0.2226957,-0.18379715,-0.47897336,0.20415713,-0.028308557,0.18300605,0.44013193,0.25390157,0.015257036,0.14919977,-0.10479915,0.21718319,-0.029365698,-0.20643662,-0.3247951,-0.08959099,-0.21702842,0.12939593,0.13610539,0.037977584,-0.07952077,-0.23503795,-0.0010372648,0.16226952,-0.048161875,0.035687525,0.235563,0.12543215,-0.13982956,-0.029576901,0.26058543},
{0.1422299,-0.17668563,0.25204152,0.22193874,0.13770005,0.1969224,0.1715602,-0.24407506,-0.19547868,0.1976722,0.1507462,0.16973187,-0.0462268,0.075919926,0.12493734,0.10130855,-0.043100517,0.37400937,-0.15438369,-0.5638119,0.114018284,0.011538647,-0.17962633,-0.0016669147,-0.041667487,0.24100114,0.22325581,-0.2784174,-0.1852881,-0.062193915,0.23810653,-0.43572584},
{-0.15623754,-0.17035797,-0.118244745,0.19733042,-0.0014846026,0.2952693,-0.103380084,0.24559437,0.008232968,0.018697161,0.17348024,0.07080092,0.041915517,-0.05419907,0.066393636,-0.16428801,-0.017718988,-0.065994024,0.27805415,0.19019108,-0.020083107,0.15075333,0.24435312,-0.023831844,-0.22907895,0.24592169,0.10342056,0.35995716,0.13361359,0.077024974,-0.038969383,-0.05568225},
{0.060649488,0.14063944,0.07307,0.11281779,-0.018796908,0.14322409,0.07453367,0.034463968,0.057223167,0.013539705,-0.3444135,0.15636459,0.09909586,0.28669968,0.17509773,-0.035998672,0.23001935,0.3591311,-0.0022280486,-0.13528241,-0.33839837,0.31581426,-0.4095489,0.07389264,0.20170437,0.02501625,0.14010839,-0.07073217,0.025141686,-0.052676465,0.0467304,-0.29687726},
{0.15374525,0.07693285,-0.25355902,-0.011552925,-0.03712225,-0.104579106,0.32747093,-0.028161589,0.2704806,0.19621262,-0.5982777,0.31264618,0.06848921,0.22868542,-0.039357487,-0.013789898,0.09791595,0.0471696,-0.05109343,-0.10137756,-0.22977872,0.17221415,-0.4319755,0.14477982,0.21266392,-0.18325058,0.17763399,-0.21495885,-0.0039495463,-0.043835588,0.08080532,-0.22945477},
{0.16995889,0.2596257,-0.059042968,0.36364904,-0.054558862,0.3823604,0.22143783,-0.0030182775,-0.11164468,-0.2797842,-0.007153974,0.15072483,-0.26279816,-0.004100525,0.13233486,0.014418014,-0.1144091,0.008522604,0.0439861,-0.17244056,-0.21127634,0.13793632,-0.14787918,0.16539066,-0.054694314,0.2109372,-0.014330286,0.3608849,0.124371454,0.15484306,-0.22791395,-0.27639434},
{-0.09305035,0.044433743,0.1745116,-0.09781843,0.2617388,-0.09359268,0.13164192,-0.07105093,0.050940745,0.145855,0.033799466,-0.07443075,-0.057583053,0.081765674,0.101727605,0.10535076,0.06737786,0.20509703,0.06195902,-0.25433257,0.13727738,-0.16089498,-0.11743721,-0.284667,0.059602506,0.049694866,0.06942298,-0.23568599,0.012048667,-0.04452464,0.17491475,0.115710646},
{0.09043628,0.16536815,-0.034335416,-0.24848104,0.25046828,-0.4381198,0.14479928,0.053373937,0.07686671,0.11500024,-0.08992535,-0.20756562,-0.062369138,-0.0011970657,0.06051503,0.18877773,0.11375281,0.21176869,0.13729791,0.14304432,0.20397098,-0.18908235,-0.025005503,-0.13687576,0.022894563,-0.08299731,-0.006035695,-0.19031243,-0.028732212,-0.024659202,0.22744934,0.15301782},
{-0.17767735,-0.16234492,0.22052918,-0.13379891,-0.034730017,-0.03612883,0.0437092,-0.031439237,-0.017835418,0.32214633,0.2336813,0.1311156,0.10310808,0.057181664,0.16982348,-0.002828839,-0.04348909,0.1382357,-0.00047454584,0.0239765,0.15551107,0.21395035,-0.053078666,-0.1742394,0.0100358175,-0.056730896,-0.082193024,-0.30658948,0.20365162,-0.1597156,0.17338903,-0.09807802},
{0.15379997,-0.009942538,0.11713703,-0.17757848,0.15934902,-0.20548204,0.182894,-0.036727585,0.07465981,0.18573931,-0.09878999,-0.033753116,-0.113570385,0.07437115,0.06882495,0.31015477,0.17678973,0.36641464,-0.15902352,-0.152338,0.1730901,-0.15799749,0.088602886,-0.19683284,0.14471458,-0.008345748,-0.16317558,-0.14151631,-0.118458144,-0.024324864,0.19200426,0.17379019},
{-0.17437363,-0.35374847,-0.0010894829,-0.02082501,-0.061108675,0.24705365,0.002321832,0.11257185,0.030325228,-0.101543576,0.38899463,0.2885496,0.030138334,0.1105812,0.03416036,-0.026006103,0.0088824,0.17682444,-0.35071936,0.13474262,0.20109518,-0.1554312,-0.18992728,0.035000492,0.18914108,0.12134664,-0.17580068,-0.06790034,0.014385948,0.07831078,-0.20404665,-0.1377024},
{-0.14717345,0.108976156,0.25777143,0.11882224,0.25178024,-0.067803904,0.089313135,-0.15811984,-0.081137516,-0.106987715,-0.042650186,0.0047566113,0.014223099,0.009359053,-0.12158727,0.14137971,0.14986913,0.080730475,-0.33600503,-0.16676009,0.076621875,0.0020284196,0.142673,-0.047162242,0.30235928,0.014779966,-0.2666528,-0.07343013,-0.20419204,0.03816357,0.1683861,0.12395295},
{0.27771392,0.0144968275,-0.18744765,0.2758457,-0.07141316,0.29680434,-0.18496972,-0.21548426,0.13967732,0.053501938,0.03572909,0.19786389,-0.26559696,0.27131918,0.17797114,0.10199357,0.16627635,0.012480197,0.06044141,-0.25256774,-0.11525557,0.21593145,0.13376182,0.12518512,-0.01514349,0.16553861,0.12681344,0.039681133,-0.20192046,0.23264173,-0.13981092,-0.21355923},
{-0.21810476,-0.019901397,0.10997095,-0.03731425,0.22816838,-0.25398174,-0.05736476,0.23698148,-0.17004073,-0.23318605,0.23683332,-0.20306942,-0.053199343,0.00146941,0.10118922,-0.07811914,0.33619085,-0.6581339,-0.23220046,0.06407945,0.20625013,-0.18618476,0.102373034,-0.34520945,-0.008656832,0.07065888,-0.033034433,-0.073061734,-0.20680274,0.18502177,0.41025585,-0.056623172},
{0.019498084,-0.093172245,0.24611014,0.023281846,0.11618933,-0.11834394,0.19944274,-0.19452132,-0.11591832,0.052293047,0.22734146,0.042331904,-0.08062688,0.024047174,0.09323666,0.22824089,0.28286976,0.11274796,0.0500699,-0.26877666,0.3344053,-0.0030490106,-0.01639577,-0.19692878,-0.0864367,0.20584,-0.019510815,-0.1673158,-0.15024143,0.061268706,0.19844232,0.16458304},
{-0.28001538,0.07494298,0.24536556,0.1691685,-0.16991968,0.0073681613,-0.13208741,-0.21353005,-0.096809424,-0.0336211,0.108005755,0.061057832,-0.062271733,-0.29710886,-0.05860718,-0.102252536,0.16131705,0.1951376,0.14008433,0.14704092,0.22863458,0.13082816,0.08628954,-0.0072788694,0.18585712,-0.10736737,-0.093682,-0.22077604,-0.1279819,-0.15555836,0.0073185824,0.26247284},
{-0.15612696,-0.13118441,0.09352829,0.44967622,-0.04753471,0.27428678,-0.086593345,0.018867748,0.1906789,0.09919294,0.08136201,0.22058547,-0.087390475,-0.083545305,-0.011201915,0.036711413,-0.03444922,-0.15110838,0.2356996,-0.07652098,-0.17864014,0.26259425,0.012615602,0.29667416,-0.15497273,0.21679445,0.061650597,0.34333214,0.0664109,0.19356675,-0.32025468,-0.12468677},
{-0.37956235,-0.05460405,0.13585119,0.07445846,-0.04376123,-0.05728414,0.0017103718,0.017312072,-0.14135827,0.3324759,-0.006600393,0.09610519,0.073393874,-0.34449127,-0.2397036,-0.30492496,-0.054252204,-0.17032446,0.28865024,0.21211015,0.2016343,-0.14336132,0.08108521,0.15200359,0.12819713,-0.075823516,-0.041833557,0.25667432,-0.007912155,-0.054725286,-0.12406006,0.1227883},
{-0.010350369,-0.26064524,0.2039369,0.27740267,-0.18553786,-0.052332927,-0.31259376,0.06523093,0.16032493,0.19113319,-0.009995942,0.1319282,0.13710694,-0.14001311,-0.110534206,-0.3773835,-0.23256443,-0.09558205,-0.10851066,0.31925645,-0.10465922,-0.1620765,0.072184086,-0.26791936,-0.12024782,-0.06905403,-0.04376778,-0.018897798,0.12602606,-0.14854257,-0.2162265,0.013272185},
{0.29074275,0.26492396,-0.24695894,0.04874676,-0.0679961,0.13545974,0.020052185,0.106114246,0.21468745,0.071233936,-0.04605715,0.10657038,0.24059257,-0.06332098,-0.006731861,-0.20735368,-0.07705085,-0.22921158,0.05929057,0.3268578,-0.21795788,0.040128157,-0.29091835,0.37112105,0.23138912,-0.17088722,0.13335551,0.29752627,0.22639512,-0.040601786,-0.11014122,-0.24007896},
{-0.08014641,-0.07028984,0.13371679,-0.09777199,0.07888608,-0.1969637,-0.059464596,0.061049625,0.0054646167,0.25480598,-0.11275954,-0.25266346,0.25954834,-0.04087315,-0.08653769,0.081590965,-0.0893203,-0.23097894,0.1402624,0.372969,0.27253345,-0.22529607,0.01638395,0.1566464,0.19262388,-0.34100226,0.07344845,0.20479265,0.27574816,-0.1259378,-0.052223723,0.15548658},
{0.18088372,0.43473327,0.34148595,0.04517543,-0.072380126,0.13505882,0.05639952,-0.25363135,-0.06190893,0.31732365,-0.32608232,-0.025601352,-0.019229537,-0.08215596,0.022230068,-0.0083338795,-0.06383936,0.206048,0.008464641,-0.416101,0.20705748,0.12114457,-0.07686988,0.054643016,0.17194672,0.12047154,-0.010932419,-0.083026,-0.17279397,-0.18377249,0.17551401,0.01942344},
{-0.2107836,-0.13504367,0.022727558,0.13049117,0.07836922,0.08588231,-0.071414225,0.0038277933,0.05334395,-0.11316428,0.29785544,-0.12020317,0.0071248882,-0.01901638,0.19460557,-0.20553148,-0.05633507,-0.23622048,0.272679,0.16068584,0.023210427,0.030513516,0.068163745,0.005114789,-0.22552876,0.037396275,0.06637614,0.27252793,0.33757192,0.02985707,-0.09836962,-0.066879526},
{0.055344313,0.16917115,0.28835988,-0.14449257,0.18945524,-0.3208829,0.1301198,0.12811618,0.05007141,-0.0718948,-0.08072152,-0.23671651,0.11221543,0.19345042,-0.116679825,0.0053473674,-0.09489664,-0.23325665,0.11709402,0.18310401,0.05401513,-0.48505035,0.2806846,-0.15211108,0.0888126,0.026910275,-0.14747053,0.17144099,-0.016583283,-0.1832811,0.10180974,0.3833513},
{0.19036713,0.31262475,-0.22422278,0.14253646,-0.1081564,-0.09549988,0.11430055,-0.12610678,0.15014926,0.15130578,-0.28961003,0.3876412,0.109400965,0.124580316,0.10583487,0.07406707,-0.17567068,0.069409356,-0.02630393,0.09724927,-0.21331583,0.33042297,-0.22703773,0.10814793,0.118021674,-0.19388579,0.056998722,-0.22252466,0.1704278,-0.045757845,-0.0690643,-0.10094733},
{0.33822507,0.24021712,0.061876066,-0.28114012,0.23697637,-0.22708769,0.05174725,-0.051890627,-0.061659023,-0.108133726,-0.10124556,0.054629095,0.095404975,-0.19095846,-0.012522031,-0.03201477,0.13175546,0.09594708,0.111266956,0.13522594,0.067958824,-0.058132134,0.058121227,0.12872168,-0.01149853,-0.19564462,-0.09575519,-0.20489709,-0.03744779,-0.22949407,0.049811967,0.15173739},
{0.28369656,0.22569586,0.13788314,-0.13801053,0.14870425,-0.23966157,0.24307713,0.024767667,-0.116751954,0.0237785,0.12673469,0.1336279,0.34577948,0.04031175,-0.15177134,0.13021456,0.043686636,0.062479172,-0.07160625,0.28739378,0.08386838,-0.20187189,-0.09941922,0.22685751,0.0942155,-0.06557971,-0.26420158,-0.16487183,-0.027430965,-0.064462684,0.021061732,0.21739592}};

const Matrix<float, 32, 32> matrix_AgentActordense_1kernel(AgentActordense_1kernel);


const float AgentActordense_1bias[32] = 
{0.15830362,-0.045405608,0.07318724,-0.017323617,0.07120014,0.17753863,0.05641536,0.10417646,0.13883923,0.038540743,0.1583251,0.104392,0.16122733,0.123131186,0.08095612,0.11831955,0.07595289,0.099272944,0.06535059,0.07403274,0.080455504,0.123354346,0.1221947,0.12819046,0.16366047,0.082900904,-0.011970903,0.14089802,-0.009410567,-0.020821262,0.053587895,0.14009237};

const Matrix<float, 32, 1> matrix_AgentActordense_1bias(AgentActordense_1bias);


const float AgentActordense_2kernel[4][32] = 
{{0.03379652,0.3794705,-0.38989335,0.38534775,-0.026410136,-0.2522799,-0.07967353,-0.1397168,0.29921198,0.24497668,0.42589077,-0.12186934,-0.08814268,-0.20210288,-0.15838066,-0.029270755,0.07018473,0.42258596,-0.41972834,-0.11888218,-0.33700326,0.18773413,-0.38026613,-0.2912104,0.2228474,-0.42709813,0.06976158,-0.2386148,-0.4284087,0.3924759,0.026885036,0.052680653},
{0.11523649,0.08659642,0.24364467,-0.02255304,-0.33070305,0.3918035,-0.2613606,-0.3656421,-0.011828694,0.19232693,-0.15179548,0.07961825,0.17987041,-0.09858732,0.12860222,0.28398603,0.19957572,-0.47332782,-0.12176154,-0.067196876,0.14748596,-0.3516828,0.41214427,-0.07444952,0.124409616,0.31285447,0.27775383,-0.31116882,0.4231372,0.06795485,0.66558444,0.38949308},
{-0.39744127,0.0211663,0.29167172,0.27992252,0.0010943344,-0.43759266,0.4313931,-0.40318128,0.27206013,0.31983963,-0.21063054,0.23700635,0.14315362,0.24191125,0.39909172,0.5148086,0.12558244,0.089742996,-0.41694143,0.16665244,0.19460629,-0.2610861,-0.18239374,-0.26758417,-0.14365491,-0.14621934,0.2644212,-0.3171321,-0.08322529,0.24860612,0.26646277,0.04964491},
{0.027193416,0.2822213,0.3978224,-0.047663093,0.2699681,0.5012025,-0.35999024,0.1607913,0.107681185,0.18627082,-0.06853236,-0.13285907,-0.027403232,0.089892395,-0.29275644,-0.15212314,-0.48936963,-0.26377925,-0.4446225,-0.3409915,-0.05154641,0.043952543,0.17078848,0.58566016,0.39428252,0.33273286,-0.5840355,0.15734345,-0.14131896,0.28975365,0.051462613,0.001326492}};

const Matrix<float, 4, 32> matrix_AgentActordense_2kernel(AgentActordense_2kernel);


extern "C" {
Vector<float, 4> nn_controller(Dcmf &R, Vector3f &pos_err, Vector3f &vel, Vector3f &ang_vel)
{
	static Vector<float, 18> input_states;
	static float rotation_array[9];
	static Vector<float, 32> temp;
	static Vector<float, 4> output;
	R.copyToColumnMajor(rotation_array);
	for (int i = 0; i < 9; ++i)
	{
		input_states(i) = rotation_array[i];
	} 

	for (int i = 9; i < 12; ++i)	{
		input_states(i) = ang_vel(i) * 0.15f;
	}

	for (int i = 12; i < 15; ++i)
	{
		input_states(i) = vel(i) * 0.15f;
	}

	for (int i = 15; i < 18; ++i)
	{
		input_states(i) = pos_err(i) * 0.5f;
	}

	temp = matrix_AgentActordensekernel*input_states + matrix_AgentActordensebias;
	for (int i = 0; i < 32; ++i){
		if (temp(i) < 0)
			temp(i) = 0;
	}

	temp = matrix_AgentActordense_1kernel*temp + matrix_AgentActordense_1bias;
	for (int i = 0; i < 32; ++i){
		if (temp(i) < 0)
			temp(i) = 0;
	}

	output = matrix_AgentActordense_2kernel*temp;
	for (int i = 0; i < 4; ++i)
	{
		output(i) = sin(output(i));
	}

	return output;
}
}